{
  "nbformat": 4,
  "nbformat_minor": 0,
  "metadata": {
    "colab": {
      "name": "project 119",
      "provenance": [],
      "authorship_tag": "ABX9TyNN4OZ9QLlnIHK3k2ChEnlS",
      "include_colab_link": true
    },
    "kernelspec": {
      "name": "python3",
      "display_name": "Python 3"
    },
    "language_info": {
      "name": "python"
    }
  },
  "cells": [
    {
      "cell_type": "markdown",
      "metadata": {
        "id": "view-in-github",
        "colab_type": "text"
      },
      "source": [
        "<a href=\"https://colab.research.google.com/github/toluopel/project-119/blob/main/project_119\" target=\"_parent\"><img src=\"https://colab.research.google.com/assets/colab-badge.svg\" alt=\"Open In Colab\"/></a>"
      ]
    },
    {
      "cell_type": "code",
      "metadata": {
        "colab": {
          "base_uri": "https://localhost:8080/"
        },
        "id": "UAm86WLC8rIw",
        "outputId": "d277e77d-9de4-4854-b5c7-350854936124"
      },
      "source": [
        "import pandas as pd\n",
        "\n",
        "\n",
        "\n",
        "df = pd.read_csv(\"titanic.csv\")\n",
        "print(df.head())"
      ],
      "execution_count": 2,
      "outputs": [
        {
          "output_type": "stream",
          "name": "stdout",
          "text": [
            "   PassengerId  Pclass  Sex   Age  SibSp  Parch  Survived\n",
            "0            1       3    1  34.5      1      0         0\n",
            "1            2       1    0  47.0      1      0         1\n",
            "2            3       3    0  62.0      0      0         1\n",
            "3            4       1    0  27.0      1      0         1\n",
            "4            5       3    1  22.0      0      0         0\n"
          ]
        }
      ]
    },
    {
      "cell_type": "code",
      "metadata": {
        "colab": {
          "base_uri": "https://localhost:8080/"
        },
        "id": "S1PY3dbo-fdY",
        "outputId": "394f82e2-191f-46d4-a5e3-6e4aeee67256"
      },
      "source": [
        "features = [\"PassengerId\",'Pclass','Sex','Age','SibSp','Parch']\n",
        "X = df[features]\n",
        "y = df.Survived\n",
        "\n",
        "#Spliting the data\n",
        "from sklearn.tree import DecisionTreeClassifier\n",
        "from sklearn.model_selection import train_test_split\n",
        "from sklearn import metrics\n",
        "\n",
        "#Spliting data in training and testing\n",
        "X_train,X_test,y_train,y_test = train_test_split(X,y,test_size = 0.3, random_state = 1)\n",
        "\n",
        "#Intialize the  decision tree model\n",
        "clf = DecisionTreeClassifier()\n",
        "\n",
        "#Fitting the data\n",
        "clf = clf.fit(X_train,y_train)\n",
        "\n",
        "#Calculate the accuracy\n",
        "y_pred = clf.predict(X_test)\n",
        "print(\"accuracy:\",metrics.accuracy_score(y_test,y_pred) )\n"
      ],
      "execution_count": 4,
      "outputs": [
        {
          "output_type": "stream",
          "name": "stdout",
          "text": [
            "accuracy: 0.6977611940298507\n"
          ]
        }
      ]
    },
    {
      "cell_type": "code",
      "metadata": {
        "colab": {
          "base_uri": "https://localhost:8080/"
        },
        "id": "ao5-dAJL_6lK",
        "outputId": "e00de9d4-9fa0-4f13-9f00-081bc74c1fa7"
      },
      "source": [
        "from sklearn.tree import export_graphviz\n",
        "from six import StringIO\n",
        "\n",
        "from IPython.display import Image\n",
        "import pydotplus  \n",
        "\n",
        "dot_data = StringIO()\n",
        "export_graphviz(clf,out_file = dot_data,filled = True,rounded = True,special_characters = True, feature_names = features, class_names=['0','1'])\n",
        "\n",
        "print(dot_data.getvalue())"
      ],
      "execution_count": 7,
      "outputs": [
        {
          "output_type": "stream",
          "name": "stdout",
          "text": [
            "digraph Tree {\n",
            "node [shape=box, style=\"filled, rounded\", color=\"black\", fontname=\"helvetica\"] ;\n",
            "edge [fontname=\"helvetica\"] ;\n",
            "0 [label=<Sex &le; 0.5<br/>gini = 0.463<br/>samples = 623<br/>value = [396, 227]<br/>class = 0>, fillcolor=\"#f4c9aa\"] ;\n",
            "1 [label=<Pclass &le; 2.5<br/>gini = 0.387<br/>samples = 217<br/>value = [57, 160]<br/>class = 1>, fillcolor=\"#80c0ee\"] ;\n",
            "0 -> 1 [labeldistance=2.5, labelangle=45, headlabel=\"True\"] ;\n",
            "2 [label=<Age &le; 0.5<br/>gini = 0.097<br/>samples = 117<br/>value = [6, 111]<br/>class = 1>, fillcolor=\"#44a2e6\"] ;\n",
            "1 -> 2 ;\n",
            "3 [label=<PassengerId &le; 176.0<br/>gini = 0.391<br/>samples = 15<br/>value = [4, 11]<br/>class = 1>, fillcolor=\"#81c1ee\"] ;\n",
            "2 -> 3 ;\n",
            "4 [label=<gini = 0.0<br/>samples = 4<br/>value = [0, 4]<br/>class = 1>, fillcolor=\"#399de5\"] ;\n",
            "3 -> 4 ;\n",
            "5 [label=<PassengerId &le; 362.5<br/>gini = 0.463<br/>samples = 11<br/>value = [4, 7]<br/>class = 1>, fillcolor=\"#aad5f4\"] ;\n",
            "3 -> 5 ;\n",
            "6 [label=<PassengerId &le; 294.5<br/>gini = 0.49<br/>samples = 7<br/>value = [4, 3]<br/>class = 0>, fillcolor=\"#f8e0ce\"] ;\n",
            "5 -> 6 ;\n",
            "7 [label=<PassengerId &le; 206.0<br/>gini = 0.375<br/>samples = 4<br/>value = [1, 3]<br/>class = 1>, fillcolor=\"#7bbeee\"] ;\n",
            "6 -> 7 ;\n",
            "8 [label=<gini = 0.0<br/>samples = 1<br/>value = [1, 0]<br/>class = 0>, fillcolor=\"#e58139\"] ;\n",
            "7 -> 8 ;\n",
            "9 [label=<gini = 0.0<br/>samples = 3<br/>value = [0, 3]<br/>class = 1>, fillcolor=\"#399de5\"] ;\n",
            "7 -> 9 ;\n",
            "10 [label=<gini = 0.0<br/>samples = 3<br/>value = [3, 0]<br/>class = 0>, fillcolor=\"#e58139\"] ;\n",
            "6 -> 10 ;\n",
            "11 [label=<gini = 0.0<br/>samples = 4<br/>value = [0, 4]<br/>class = 1>, fillcolor=\"#399de5\"] ;\n",
            "5 -> 11 ;\n",
            "12 [label=<PassengerId &le; 854.5<br/>gini = 0.038<br/>samples = 102<br/>value = [2, 100]<br/>class = 1>, fillcolor=\"#3d9fe6\"] ;\n",
            "2 -> 12 ;\n",
            "13 [label=<Age &le; 52.5<br/>gini = 0.02<br/>samples = 97<br/>value = [1, 96]<br/>class = 1>, fillcolor=\"#3b9ee5\"] ;\n",
            "12 -> 13 ;\n",
            "14 [label=<gini = 0.0<br/>samples = 89<br/>value = [0, 89]<br/>class = 1>, fillcolor=\"#399de5\"] ;\n",
            "13 -> 14 ;\n",
            "15 [label=<PassengerId &le; 247.5<br/>gini = 0.219<br/>samples = 8<br/>value = [1, 7]<br/>class = 1>, fillcolor=\"#55abe9\"] ;\n",
            "13 -> 15 ;\n",
            "16 [label=<gini = 0.0<br/>samples = 1<br/>value = [1, 0]<br/>class = 0>, fillcolor=\"#e58139\"] ;\n",
            "15 -> 16 ;\n",
            "17 [label=<gini = 0.0<br/>samples = 7<br/>value = [0, 7]<br/>class = 1>, fillcolor=\"#399de5\"] ;\n",
            "15 -> 17 ;\n",
            "18 [label=<PassengerId &le; 856.0<br/>gini = 0.32<br/>samples = 5<br/>value = [1, 4]<br/>class = 1>, fillcolor=\"#6ab6ec\"] ;\n",
            "12 -> 18 ;\n",
            "19 [label=<gini = 0.0<br/>samples = 1<br/>value = [1, 0]<br/>class = 0>, fillcolor=\"#e58139\"] ;\n",
            "18 -> 19 ;\n",
            "20 [label=<gini = 0.0<br/>samples = 4<br/>value = [0, 4]<br/>class = 1>, fillcolor=\"#399de5\"] ;\n",
            "18 -> 20 ;\n",
            "21 [label=<SibSp &le; 2.5<br/>gini = 0.5<br/>samples = 100<br/>value = [51, 49]<br/>class = 0>, fillcolor=\"#fefaf7\"] ;\n",
            "1 -> 21 ;\n",
            "22 [label=<Age &le; 51.5<br/>gini = 0.496<br/>samples = 88<br/>value = [40, 48]<br/>class = 1>, fillcolor=\"#deeffb\"] ;\n",
            "21 -> 22 ;\n",
            "23 [label=<Parch &le; 3.5<br/>gini = 0.49<br/>samples = 84<br/>value = [36, 48]<br/>class = 1>, fillcolor=\"#cee6f8\"] ;\n",
            "22 -> 23 ;\n",
            "24 [label=<PassengerId &le; 820.5<br/>gini = 0.482<br/>samples = 79<br/>value = [32, 47]<br/>class = 1>, fillcolor=\"#c0e0f7\"] ;\n",
            "23 -> 24 ;\n",
            "25 [label=<PassengerId &le; 793.5<br/>gini = 0.488<br/>samples = 76<br/>value = [32, 44]<br/>class = 1>, fillcolor=\"#c9e4f8\"] ;\n",
            "24 -> 25 ;\n",
            "26 [label=<PassengerId &le; 668.0<br/>gini = 0.479<br/>samples = 73<br/>value = [29, 44]<br/>class = 1>, fillcolor=\"#bcdef6\"] ;\n",
            "25 -> 26 ;\n",
            "27 [label=<PassengerId &le; 396.0<br/>gini = 0.493<br/>samples = 66<br/>value = [29, 37]<br/>class = 1>, fillcolor=\"#d4eaf9\"] ;\n",
            "26 -> 27 ;\n",
            "28 [label=<PassengerId &le; 278.5<br/>gini = 0.454<br/>samples = 46<br/>value = [16, 30]<br/>class = 1>, fillcolor=\"#a3d1f3\"] ;\n",
            "27 -> 28 ;\n",
            "29 [label=<PassengerId &le; 222.5<br/>gini = 0.496<br/>samples = 33<br/>value = [15, 18]<br/>class = 1>, fillcolor=\"#deeffb\"] ;\n",
            "28 -> 29 ;\n",
            "30 [label=<PassengerId &le; 152.5<br/>gini = 0.444<br/>samples = 27<br/>value = [9, 18]<br/>class = 1>, fillcolor=\"#9ccef2\"] ;\n",
            "29 -> 30 ;\n",
            "31 [label=<Parch &le; 1.5<br/>gini = 0.495<br/>samples = 20<br/>value = [9, 11]<br/>class = 1>, fillcolor=\"#dbedfa\"] ;\n",
            "30 -> 31 ;\n",
            "32 [label=<SibSp &le; 0.5<br/>gini = 0.475<br/>samples = 18<br/>value = [7, 11]<br/>class = 1>, fillcolor=\"#b7dbf6\"] ;\n",
            "31 -> 32 ;\n",
            "33 [label=<PassengerId &le; 19.0<br/>gini = 0.346<br/>samples = 9<br/>value = [2, 7]<br/>class = 1>, fillcolor=\"#72b9ec\"] ;\n",
            "32 -> 33 ;\n",
            "34 [label=<gini = 0.0<br/>samples = 1<br/>value = [1, 0]<br/>class = 0>, fillcolor=\"#e58139\"] ;\n",
            "33 -> 34 ;\n",
            "35 [label=<PassengerId &le; 92.0<br/>gini = 0.219<br/>samples = 8<br/>value = [1, 7]<br/>class = 1>, fillcolor=\"#55abe9\"] ;\n",
            "33 -> 35 ;\n",
            "36 [label=<gini = 0.0<br/>samples = 6<br/>value = [0, 6]<br/>class = 1>, fillcolor=\"#399de5\"] ;\n",
            "35 -> 36 ;\n",
            "37 [label=<PassengerId &le; 121.5<br/>gini = 0.5<br/>samples = 2<br/>value = [1, 1]<br/>class = 0>, fillcolor=\"#ffffff\"] ;\n",
            "35 -> 37 ;\n",
            "38 [label=<gini = 0.0<br/>samples = 1<br/>value = [1, 0]<br/>class = 0>, fillcolor=\"#e58139\"] ;\n",
            "37 -> 38 ;\n",
            "39 [label=<gini = 0.0<br/>samples = 1<br/>value = [0, 1]<br/>class = 1>, fillcolor=\"#399de5\"] ;\n",
            "37 -> 39 ;\n",
            "40 [label=<Parch &le; 0.5<br/>gini = 0.494<br/>samples = 9<br/>value = [5, 4]<br/>class = 0>, fillcolor=\"#fae6d7\"] ;\n",
            "32 -> 40 ;\n",
            "41 [label=<Age &le; 21.75<br/>gini = 0.408<br/>samples = 7<br/>value = [5, 2]<br/>class = 0>, fillcolor=\"#efb388\"] ;\n",
            "40 -> 41 ;\n",
            "42 [label=<PassengerId &le; 112.0<br/>gini = 0.5<br/>samples = 4<br/>value = [2, 2]<br/>class = 0>, fillcolor=\"#ffffff\"] ;\n",
            "41 -> 42 ;\n",
            "43 [label=<gini = 0.0<br/>samples = 2<br/>value = [0, 2]<br/>class = 1>, fillcolor=\"#399de5\"] ;\n",
            "42 -> 43 ;\n",
            "44 [label=<gini = 0.0<br/>samples = 2<br/>value = [2, 0]<br/>class = 0>, fillcolor=\"#e58139\"] ;\n",
            "42 -> 44 ;\n",
            "45 [label=<gini = 0.0<br/>samples = 3<br/>value = [3, 0]<br/>class = 0>, fillcolor=\"#e58139\"] ;\n",
            "41 -> 45 ;\n",
            "46 [label=<gini = 0.0<br/>samples = 2<br/>value = [0, 2]<br/>class = 1>, fillcolor=\"#399de5\"] ;\n",
            "40 -> 46 ;\n",
            "47 [label=<gini = 0.0<br/>samples = 2<br/>value = [2, 0]<br/>class = 0>, fillcolor=\"#e58139\"] ;\n",
            "31 -> 47 ;\n",
            "48 [label=<gini = 0.0<br/>samples = 7<br/>value = [0, 7]<br/>class = 1>, fillcolor=\"#399de5\"] ;\n",
            "30 -> 48 ;\n",
            "49 [label=<gini = 0.0<br/>samples = 6<br/>value = [6, 0]<br/>class = 0>, fillcolor=\"#e58139\"] ;\n",
            "29 -> 49 ;\n",
            "50 [label=<Age &le; 30.5<br/>gini = 0.142<br/>samples = 13<br/>value = [1, 12]<br/>class = 1>, fillcolor=\"#49a5e7\"] ;\n",
            "28 -> 50 ;\n",
            "51 [label=<gini = 0.0<br/>samples = 9<br/>value = [0, 9]<br/>class = 1>, fillcolor=\"#399de5\"] ;\n",
            "50 -> 51 ;\n",
            "52 [label=<Parch &le; 0.5<br/>gini = 0.375<br/>samples = 4<br/>value = [1, 3]<br/>class = 1>, fillcolor=\"#7bbeee\"] ;\n",
            "50 -> 52 ;\n",
            "53 [label=<gini = 0.0<br/>samples = 3<br/>value = [0, 3]<br/>class = 1>, fillcolor=\"#399de5\"] ;\n",
            "52 -> 53 ;\n",
            "54 [label=<gini = 0.0<br/>samples = 1<br/>value = [1, 0]<br/>class = 0>, fillcolor=\"#e58139\"] ;\n",
            "52 -> 54 ;\n",
            "55 [label=<PassengerId &le; 428.0<br/>gini = 0.455<br/>samples = 20<br/>value = [13, 7]<br/>class = 0>, fillcolor=\"#f3c5a4\"] ;\n",
            "27 -> 55 ;\n",
            "56 [label=<gini = 0.0<br/>samples = 4<br/>value = [4, 0]<br/>class = 0>, fillcolor=\"#e58139\"] ;\n",
            "55 -> 56 ;\n",
            "57 [label=<Age &le; 15.25<br/>gini = 0.492<br/>samples = 16<br/>value = [9, 7]<br/>class = 0>, fillcolor=\"#f9e3d3\"] ;\n",
            "55 -> 57 ;\n",
            "58 [label=<gini = 0.0<br/>samples = 2<br/>value = [2, 0]<br/>class = 0>, fillcolor=\"#e58139\"] ;\n",
            "57 -> 58 ;\n",
            "59 [label=<Age &le; 21.5<br/>gini = 0.5<br/>samples = 14<br/>value = [7, 7]<br/>class = 0>, fillcolor=\"#ffffff\"] ;\n",
            "57 -> 59 ;\n",
            "60 [label=<gini = 0.0<br/>samples = 3<br/>value = [0, 3]<br/>class = 1>, fillcolor=\"#399de5\"] ;\n",
            "59 -> 60 ;\n",
            "61 [label=<PassengerId &le; 453.5<br/>gini = 0.463<br/>samples = 11<br/>value = [7, 4]<br/>class = 0>, fillcolor=\"#f4c9aa\"] ;\n",
            "59 -> 61 ;\n",
            "62 [label=<gini = 0.0<br/>samples = 1<br/>value = [0, 1]<br/>class = 1>, fillcolor=\"#399de5\"] ;\n",
            "61 -> 62 ;\n",
            "63 [label=<Age &le; 41.25<br/>gini = 0.42<br/>samples = 10<br/>value = [7, 3]<br/>class = 0>, fillcolor=\"#f0b78e\"] ;\n",
            "61 -> 63 ;\n",
            "64 [label=<PassengerId &le; 494.0<br/>gini = 0.278<br/>samples = 6<br/>value = [5, 1]<br/>class = 0>, fillcolor=\"#ea9a61\"] ;\n",
            "63 -> 64 ;\n",
            "65 [label=<PassengerId &le; 479.5<br/>gini = 0.5<br/>samples = 2<br/>value = [1, 1]<br/>class = 0>, fillcolor=\"#ffffff\"] ;\n",
            "64 -> 65 ;\n",
            "66 [label=<gini = 0.0<br/>samples = 1<br/>value = [1, 0]<br/>class = 0>, fillcolor=\"#e58139\"] ;\n",
            "65 -> 66 ;\n",
            "67 [label=<gini = 0.0<br/>samples = 1<br/>value = [0, 1]<br/>class = 1>, fillcolor=\"#399de5\"] ;\n",
            "65 -> 67 ;\n",
            "68 [label=<gini = 0.0<br/>samples = 4<br/>value = [4, 0]<br/>class = 0>, fillcolor=\"#e58139\"] ;\n",
            "64 -> 68 ;\n",
            "69 [label=<Age &le; 46.0<br/>gini = 0.5<br/>samples = 4<br/>value = [2, 2]<br/>class = 0>, fillcolor=\"#ffffff\"] ;\n",
            "63 -> 69 ;\n",
            "70 [label=<gini = 0.0<br/>samples = 2<br/>value = [0, 2]<br/>class = 1>, fillcolor=\"#399de5\"] ;\n",
            "69 -> 70 ;\n",
            "71 [label=<gini = 0.0<br/>samples = 2<br/>value = [2, 0]<br/>class = 0>, fillcolor=\"#e58139\"] ;\n",
            "69 -> 71 ;\n",
            "72 [label=<gini = 0.0<br/>samples = 7<br/>value = [0, 7]<br/>class = 1>, fillcolor=\"#399de5\"] ;\n",
            "26 -> 72 ;\n",
            "73 [label=<gini = 0.0<br/>samples = 3<br/>value = [3, 0]<br/>class = 0>, fillcolor=\"#e58139\"] ;\n",
            "25 -> 73 ;\n",
            "74 [label=<gini = 0.0<br/>samples = 3<br/>value = [0, 3]<br/>class = 1>, fillcolor=\"#399de5\"] ;\n",
            "24 -> 74 ;\n",
            "75 [label=<Age &le; 48.5<br/>gini = 0.32<br/>samples = 5<br/>value = [4, 1]<br/>class = 0>, fillcolor=\"#eca06a\"] ;\n",
            "23 -> 75 ;\n",
            "76 [label=<gini = 0.0<br/>samples = 4<br/>value = [4, 0]<br/>class = 0>, fillcolor=\"#e58139\"] ;\n",
            "75 -> 76 ;\n",
            "77 [label=<gini = 0.0<br/>samples = 1<br/>value = [0, 1]<br/>class = 1>, fillcolor=\"#399de5\"] ;\n",
            "75 -> 77 ;\n",
            "78 [label=<gini = 0.0<br/>samples = 4<br/>value = [4, 0]<br/>class = 0>, fillcolor=\"#e58139\"] ;\n",
            "22 -> 78 ;\n",
            "79 [label=<PassengerId &le; 70.5<br/>gini = 0.153<br/>samples = 12<br/>value = [11, 1]<br/>class = 0>, fillcolor=\"#e78c4b\"] ;\n",
            "21 -> 79 ;\n",
            "80 [label=<SibSp &le; 3.5<br/>gini = 0.5<br/>samples = 2<br/>value = [1, 1]<br/>class = 0>, fillcolor=\"#ffffff\"] ;\n",
            "79 -> 80 ;\n",
            "81 [label=<gini = 0.0<br/>samples = 1<br/>value = [1, 0]<br/>class = 0>, fillcolor=\"#e58139\"] ;\n",
            "80 -> 81 ;\n",
            "82 [label=<gini = 0.0<br/>samples = 1<br/>value = [0, 1]<br/>class = 1>, fillcolor=\"#399de5\"] ;\n",
            "80 -> 82 ;\n",
            "83 [label=<gini = 0.0<br/>samples = 10<br/>value = [10, 0]<br/>class = 0>, fillcolor=\"#e58139\"] ;\n",
            "79 -> 83 ;\n",
            "84 [label=<Pclass &le; 1.5<br/>gini = 0.276<br/>samples = 406<br/>value = [339, 67]<br/>class = 0>, fillcolor=\"#ea9a60\"] ;\n",
            "0 -> 84 [labeldistance=2.5, labelangle=-45, headlabel=\"False\"] ;\n",
            "85 [label=<PassengerId &le; 565.5<br/>gini = 0.439<br/>samples = 80<br/>value = [54, 26]<br/>class = 0>, fillcolor=\"#f2be98\"] ;\n",
            "84 -> 85 ;\n",
            "86 [label=<Parch &le; 1.5<br/>gini = 0.269<br/>samples = 50<br/>value = [42, 8]<br/>class = 0>, fillcolor=\"#ea995f\"] ;\n",
            "85 -> 86 ;\n",
            "87 [label=<PassengerId &le; 462.0<br/>gini = 0.201<br/>samples = 44<br/>value = [39, 5]<br/>class = 0>, fillcolor=\"#e89152\"] ;\n",
            "86 -> 87 ;\n",
            "88 [label=<PassengerId &le; 441.5<br/>gini = 0.257<br/>samples = 33<br/>value = [28, 5]<br/>class = 0>, fillcolor=\"#ea985c\"] ;\n",
            "87 -> 88 ;\n",
            "89 [label=<PassengerId &le; 100.5<br/>gini = 0.18<br/>samples = 30<br/>value = [27, 3]<br/>class = 0>, fillcolor=\"#e88f4f\"] ;\n",
            "88 -> 89 ;\n",
            "90 [label=<PassengerId &le; 97.5<br/>gini = 0.375<br/>samples = 8<br/>value = [6, 2]<br/>class = 0>, fillcolor=\"#eeab7b\"] ;\n",
            "89 -> 90 ;\n",
            "91 [label=<PassengerId &le; 59.5<br/>gini = 0.245<br/>samples = 7<br/>value = [6, 1]<br/>class = 0>, fillcolor=\"#e9965a\"] ;\n",
            "90 -> 91 ;\n",
            "92 [label=<PassengerId &le; 55.5<br/>gini = 0.444<br/>samples = 3<br/>value = [2, 1]<br/>class = 0>, fillcolor=\"#f2c09c\"] ;\n",
            "91 -> 92 ;\n",
            "93 [label=<gini = 0.0<br/>samples = 2<br/>value = [2, 0]<br/>class = 0>, fillcolor=\"#e58139\"] ;\n",
            "92 -> 93 ;\n",
            "94 [label=<gini = 0.0<br/>samples = 1<br/>value = [0, 1]<br/>class = 1>, fillcolor=\"#399de5\"] ;\n",
            "92 -> 94 ;\n",
            "95 [label=<gini = 0.0<br/>samples = 4<br/>value = [4, 0]<br/>class = 0>, fillcolor=\"#e58139\"] ;\n",
            "91 -> 95 ;\n",
            "96 [label=<gini = 0.0<br/>samples = 1<br/>value = [0, 1]<br/>class = 1>, fillcolor=\"#399de5\"] ;\n",
            "90 -> 96 ;\n",
            "97 [label=<PassengerId &le; 231.5<br/>gini = 0.087<br/>samples = 22<br/>value = [21, 1]<br/>class = 0>, fillcolor=\"#e68742\"] ;\n",
            "89 -> 97 ;\n",
            "98 [label=<PassengerId &le; 192.5<br/>gini = 0.165<br/>samples = 11<br/>value = [10, 1]<br/>class = 0>, fillcolor=\"#e88e4d\"] ;\n",
            "97 -> 98 ;\n",
            "99 [label=<gini = 0.0<br/>samples = 10<br/>value = [10, 0]<br/>class = 0>, fillcolor=\"#e58139\"] ;\n",
            "98 -> 99 ;\n",
            "100 [label=<gini = 0.0<br/>samples = 1<br/>value = [0, 1]<br/>class = 1>, fillcolor=\"#399de5\"] ;\n",
            "98 -> 100 ;\n",
            "101 [label=<gini = 0.0<br/>samples = 11<br/>value = [11, 0]<br/>class = 0>, fillcolor=\"#e58139\"] ;\n",
            "97 -> 101 ;\n",
            "102 [label=<PassengerId &le; 452.5<br/>gini = 0.444<br/>samples = 3<br/>value = [1, 2]<br/>class = 1>, fillcolor=\"#9ccef2\"] ;\n",
            "88 -> 102 ;\n",
            "103 [label=<gini = 0.0<br/>samples = 1<br/>value = [0, 1]<br/>class = 1>, fillcolor=\"#399de5\"] ;\n",
            "102 -> 103 ;\n",
            "104 [label=<Age &le; 23.0<br/>gini = 0.5<br/>samples = 2<br/>value = [1, 1]<br/>class = 0>, fillcolor=\"#ffffff\"] ;\n",
            "102 -> 104 ;\n",
            "105 [label=<gini = 0.0<br/>samples = 1<br/>value = [0, 1]<br/>class = 1>, fillcolor=\"#399de5\"] ;\n",
            "104 -> 105 ;\n",
            "106 [label=<gini = 0.0<br/>samples = 1<br/>value = [1, 0]<br/>class = 0>, fillcolor=\"#e58139\"] ;\n",
            "104 -> 106 ;\n",
            "107 [label=<gini = 0.0<br/>samples = 11<br/>value = [11, 0]<br/>class = 0>, fillcolor=\"#e58139\"] ;\n",
            "87 -> 107 ;\n",
            "108 [label=<Age &le; 22.75<br/>gini = 0.5<br/>samples = 6<br/>value = [3, 3]<br/>class = 0>, fillcolor=\"#ffffff\"] ;\n",
            "86 -> 108 ;\n",
            "109 [label=<PassengerId &le; 442.5<br/>gini = 0.375<br/>samples = 4<br/>value = [3, 1]<br/>class = 0>, fillcolor=\"#eeab7b\"] ;\n",
            "108 -> 109 ;\n",
            "110 [label=<gini = 0.0<br/>samples = 3<br/>value = [3, 0]<br/>class = 0>, fillcolor=\"#e58139\"] ;\n",
            "109 -> 110 ;\n",
            "111 [label=<gini = 0.0<br/>samples = 1<br/>value = [0, 1]<br/>class = 1>, fillcolor=\"#399de5\"] ;\n",
            "109 -> 111 ;\n",
            "112 [label=<gini = 0.0<br/>samples = 2<br/>value = [0, 2]<br/>class = 1>, fillcolor=\"#399de5\"] ;\n",
            "108 -> 112 ;\n",
            "113 [label=<PassengerId &le; 693.0<br/>gini = 0.48<br/>samples = 30<br/>value = [12, 18]<br/>class = 1>, fillcolor=\"#bddef6\"] ;\n",
            "85 -> 113 ;\n",
            "114 [label=<PassengerId &le; 604.0<br/>gini = 0.32<br/>samples = 15<br/>value = [3, 12]<br/>class = 1>, fillcolor=\"#6ab6ec\"] ;\n",
            "113 -> 114 ;\n",
            "115 [label=<Parch &le; 0.5<br/>gini = 0.5<br/>samples = 4<br/>value = [2, 2]<br/>class = 0>, fillcolor=\"#ffffff\"] ;\n",
            "114 -> 115 ;\n",
            "116 [label=<PassengerId &le; 578.5<br/>gini = 0.444<br/>samples = 3<br/>value = [2, 1]<br/>class = 0>, fillcolor=\"#f2c09c\"] ;\n",
            "115 -> 116 ;\n",
            "117 [label=<gini = 0.0<br/>samples = 1<br/>value = [0, 1]<br/>class = 1>, fillcolor=\"#399de5\"] ;\n",
            "116 -> 117 ;\n",
            "118 [label=<gini = 0.0<br/>samples = 2<br/>value = [2, 0]<br/>class = 0>, fillcolor=\"#e58139\"] ;\n",
            "116 -> 118 ;\n",
            "119 [label=<gini = 0.0<br/>samples = 1<br/>value = [0, 1]<br/>class = 1>, fillcolor=\"#399de5\"] ;\n",
            "115 -> 119 ;\n",
            "120 [label=<Age &le; 23.0<br/>gini = 0.165<br/>samples = 11<br/>value = [1, 10]<br/>class = 1>, fillcolor=\"#4da7e8\"] ;\n",
            "114 -> 120 ;\n",
            "121 [label=<gini = 0.0<br/>samples = 6<br/>value = [0, 6]<br/>class = 1>, fillcolor=\"#399de5\"] ;\n",
            "120 -> 121 ;\n",
            "122 [label=<Age &le; 26.5<br/>gini = 0.32<br/>samples = 5<br/>value = [1, 4]<br/>class = 1>, fillcolor=\"#6ab6ec\"] ;\n",
            "120 -> 122 ;\n",
            "123 [label=<gini = 0.0<br/>samples = 1<br/>value = [1, 0]<br/>class = 0>, fillcolor=\"#e58139\"] ;\n",
            "122 -> 123 ;\n",
            "124 [label=<gini = 0.0<br/>samples = 4<br/>value = [0, 4]<br/>class = 1>, fillcolor=\"#399de5\"] ;\n",
            "122 -> 124 ;\n",
            "125 [label=<Age &le; 28.0<br/>gini = 0.48<br/>samples = 15<br/>value = [9, 6]<br/>class = 0>, fillcolor=\"#f6d5bd\"] ;\n",
            "113 -> 125 ;\n",
            "126 [label=<gini = 0.0<br/>samples = 5<br/>value = [5, 0]<br/>class = 0>, fillcolor=\"#e58139\"] ;\n",
            "125 -> 126 ;\n",
            "127 [label=<Parch &le; 0.5<br/>gini = 0.48<br/>samples = 10<br/>value = [4, 6]<br/>class = 1>, fillcolor=\"#bddef6\"] ;\n",
            "125 -> 127 ;\n",
            "128 [label=<Age &le; 38.5<br/>gini = 0.375<br/>samples = 8<br/>value = [2, 6]<br/>class = 1>, fillcolor=\"#7bbeee\"] ;\n",
            "127 -> 128 ;\n",
            "129 [label=<gini = 0.0<br/>samples = 4<br/>value = [0, 4]<br/>class = 1>, fillcolor=\"#399de5\"] ;\n",
            "128 -> 129 ;\n",
            "130 [label=<PassengerId &le; 710.0<br/>gini = 0.5<br/>samples = 4<br/>value = [2, 2]<br/>class = 0>, fillcolor=\"#ffffff\"] ;\n",
            "128 -> 130 ;\n",
            "131 [label=<gini = 0.0<br/>samples = 1<br/>value = [0, 1]<br/>class = 1>, fillcolor=\"#399de5\"] ;\n",
            "130 -> 131 ;\n",
            "132 [label=<PassengerId &le; 820.5<br/>gini = 0.444<br/>samples = 3<br/>value = [2, 1]<br/>class = 0>, fillcolor=\"#f2c09c\"] ;\n",
            "130 -> 132 ;\n",
            "133 [label=<gini = 0.0<br/>samples = 2<br/>value = [2, 0]<br/>class = 0>, fillcolor=\"#e58139\"] ;\n",
            "132 -> 133 ;\n",
            "134 [label=<gini = 0.0<br/>samples = 1<br/>value = [0, 1]<br/>class = 1>, fillcolor=\"#399de5\"] ;\n",
            "132 -> 134 ;\n",
            "135 [label=<gini = 0.0<br/>samples = 2<br/>value = [2, 0]<br/>class = 0>, fillcolor=\"#e58139\"] ;\n",
            "127 -> 135 ;\n",
            "136 [label=<Parch &le; 0.5<br/>gini = 0.22<br/>samples = 326<br/>value = [285, 41]<br/>class = 0>, fillcolor=\"#e99355\"] ;\n",
            "84 -> 136 ;\n",
            "137 [label=<Age &le; 15.5<br/>gini = 0.168<br/>samples = 280<br/>value = [254, 26]<br/>class = 0>, fillcolor=\"#e88e4d\"] ;\n",
            "136 -> 137 ;\n",
            "138 [label=<Age &le; 14.75<br/>gini = 0.296<br/>samples = 61<br/>value = [50, 11]<br/>class = 0>, fillcolor=\"#eb9d65\"] ;\n",
            "137 -> 138 ;\n",
            "139 [label=<PassengerId &le; 291.0<br/>gini = 0.259<br/>samples = 59<br/>value = [50, 9]<br/>class = 0>, fillcolor=\"#ea985d\"] ;\n",
            "138 -> 139 ;\n",
            "140 [label=<PassengerId &le; 283.5<br/>gini = 0.391<br/>samples = 30<br/>value = [22, 8]<br/>class = 0>, fillcolor=\"#eeaf81\"] ;\n",
            "139 -> 140 ;\n",
            "141 [label=<PassengerId &le; 155.5<br/>gini = 0.302<br/>samples = 27<br/>value = [22, 5]<br/>class = 0>, fillcolor=\"#eb9e66\"] ;\n",
            "140 -> 141 ;\n",
            "142 [label=<PassengerId &le; 122.5<br/>gini = 0.444<br/>samples = 12<br/>value = [8, 4]<br/>class = 0>, fillcolor=\"#f2c09c\"] ;\n",
            "141 -> 142 ;\n",
            "143 [label=<PassengerId &le; 57.0<br/>gini = 0.32<br/>samples = 10<br/>value = [8, 2]<br/>class = 0>, fillcolor=\"#eca06a\"] ;\n",
            "142 -> 143 ;\n",
            "144 [label=<PassengerId &le; 35.5<br/>gini = 0.48<br/>samples = 5<br/>value = [3, 2]<br/>class = 0>, fillcolor=\"#f6d5bd\"] ;\n",
            "143 -> 144 ;\n",
            "145 [label=<Pclass &le; 2.5<br/>gini = 0.375<br/>samples = 4<br/>value = [3, 1]<br/>class = 0>, fillcolor=\"#eeab7b\"] ;\n",
            "144 -> 145 ;\n",
            "146 [label=<PassengerId &le; 28.0<br/>gini = 0.5<br/>samples = 2<br/>value = [1, 1]<br/>class = 0>, fillcolor=\"#ffffff\"] ;\n",
            "145 -> 146 ;\n",
            "147 [label=<gini = 0.0<br/>samples = 1<br/>value = [0, 1]<br/>class = 1>, fillcolor=\"#399de5\"] ;\n",
            "146 -> 147 ;\n",
            "148 [label=<gini = 0.0<br/>samples = 1<br/>value = [1, 0]<br/>class = 0>, fillcolor=\"#e58139\"] ;\n",
            "146 -> 148 ;\n",
            "149 [label=<gini = 0.0<br/>samples = 2<br/>value = [2, 0]<br/>class = 0>, fillcolor=\"#e58139\"] ;\n",
            "145 -> 149 ;\n",
            "150 [label=<gini = 0.0<br/>samples = 1<br/>value = [0, 1]<br/>class = 1>, fillcolor=\"#399de5\"] ;\n",
            "144 -> 150 ;\n",
            "151 [label=<gini = 0.0<br/>samples = 5<br/>value = [5, 0]<br/>class = 0>, fillcolor=\"#e58139\"] ;\n",
            "143 -> 151 ;\n",
            "152 [label=<gini = 0.0<br/>samples = 2<br/>value = [0, 2]<br/>class = 1>, fillcolor=\"#399de5\"] ;\n",
            "142 -> 152 ;\n",
            "153 [label=<PassengerId &le; 261.5<br/>gini = 0.124<br/>samples = 15<br/>value = [14, 1]<br/>class = 0>, fillcolor=\"#e78a47\"] ;\n",
            "141 -> 153 ;\n",
            "154 [label=<gini = 0.0<br/>samples = 12<br/>value = [12, 0]<br/>class = 0>, fillcolor=\"#e58139\"] ;\n",
            "153 -> 154 ;\n",
            "155 [label=<PassengerId &le; 277.0<br/>gini = 0.444<br/>samples = 3<br/>value = [2, 1]<br/>class = 0>, fillcolor=\"#f2c09c\"] ;\n",
            "153 -> 155 ;\n",
            "156 [label=<gini = 0.0<br/>samples = 1<br/>value = [0, 1]<br/>class = 1>, fillcolor=\"#399de5\"] ;\n",
            "155 -> 156 ;\n",
            "157 [label=<gini = 0.0<br/>samples = 2<br/>value = [2, 0]<br/>class = 0>, fillcolor=\"#e58139\"] ;\n",
            "155 -> 157 ;\n",
            "158 [label=<gini = 0.0<br/>samples = 3<br/>value = [0, 3]<br/>class = 1>, fillcolor=\"#399de5\"] ;\n",
            "140 -> 158 ;\n",
            "159 [label=<Age &le; 14.25<br/>gini = 0.067<br/>samples = 29<br/>value = [28, 1]<br/>class = 0>, fillcolor=\"#e68640\"] ;\n",
            "139 -> 159 ;\n",
            "160 [label=<gini = 0.0<br/>samples = 23<br/>value = [23, 0]<br/>class = 0>, fillcolor=\"#e58139\"] ;\n",
            "159 -> 160 ;\n",
            "161 [label=<PassengerId &le; 574.5<br/>gini = 0.278<br/>samples = 6<br/>value = [5, 1]<br/>class = 0>, fillcolor=\"#ea9a61\"] ;\n",
            "159 -> 161 ;\n",
            "162 [label=<gini = 0.0<br/>samples = 3<br/>value = [3, 0]<br/>class = 0>, fillcolor=\"#e58139\"] ;\n",
            "161 -> 162 ;\n",
            "163 [label=<PassengerId &le; 585.5<br/>gini = 0.444<br/>samples = 3<br/>value = [2, 1]<br/>class = 0>, fillcolor=\"#f2c09c\"] ;\n",
            "161 -> 163 ;\n",
            "164 [label=<gini = 0.0<br/>samples = 1<br/>value = [0, 1]<br/>class = 1>, fillcolor=\"#399de5\"] ;\n",
            "163 -> 164 ;\n",
            "165 [label=<gini = 0.0<br/>samples = 2<br/>value = [2, 0]<br/>class = 0>, fillcolor=\"#e58139\"] ;\n",
            "163 -> 165 ;\n",
            "166 [label=<gini = 0.0<br/>samples = 2<br/>value = [0, 2]<br/>class = 1>, fillcolor=\"#399de5\"] ;\n",
            "138 -> 166 ;\n",
            "167 [label=<PassengerId &le; 192.5<br/>gini = 0.128<br/>samples = 219<br/>value = [204, 15]<br/>class = 0>, fillcolor=\"#e78a48\"] ;\n",
            "137 -> 167 ;\n",
            "168 [label=<gini = 0.0<br/>samples = 38<br/>value = [38, 0]<br/>class = 0>, fillcolor=\"#e58139\"] ;\n",
            "167 -> 168 ;\n",
            "169 [label=<PassengerId &le; 206.0<br/>gini = 0.152<br/>samples = 181<br/>value = [166, 15]<br/>class = 0>, fillcolor=\"#e78c4b\"] ;\n",
            "167 -> 169 ;\n",
            "170 [label=<gini = 0.0<br/>samples = 1<br/>value = [0, 1]<br/>class = 1>, fillcolor=\"#399de5\"] ;\n",
            "169 -> 170 ;\n",
            "171 [label=<PassengerId &le; 450.0<br/>gini = 0.143<br/>samples = 180<br/>value = [166, 14]<br/>class = 0>, fillcolor=\"#e78c4a\"] ;\n",
            "169 -> 171 ;\n",
            "172 [label=<PassengerId &le; 444.0<br/>gini = 0.249<br/>samples = 48<br/>value = [41, 7]<br/>class = 0>, fillcolor=\"#e9975b\"] ;\n",
            "171 -> 172 ;\n",
            "173 [label=<Age &le; 22.5<br/>gini = 0.223<br/>samples = 47<br/>value = [41, 6]<br/>class = 0>, fillcolor=\"#e99356\"] ;\n",
            "172 -> 173 ;\n",
            "174 [label=<gini = 0.0<br/>samples = 14<br/>value = [14, 0]<br/>class = 0>, fillcolor=\"#e58139\"] ;\n",
            "173 -> 174 ;\n",
            "175 [label=<Age &le; 31.0<br/>gini = 0.298<br/>samples = 33<br/>value = [27, 6]<br/>class = 0>, fillcolor=\"#eb9d65\"] ;\n",
            "173 -> 175 ;\n",
            "176 [label=<PassengerId &le; 240.5<br/>gini = 0.444<br/>samples = 12<br/>value = [8, 4]<br/>class = 0>, fillcolor=\"#f2c09c\"] ;\n",
            "175 -> 176 ;\n",
            "177 [label=<gini = 0.0<br/>samples = 2<br/>value = [0, 2]<br/>class = 1>, fillcolor=\"#399de5\"] ;\n",
            "176 -> 177 ;\n",
            "178 [label=<PassengerId &le; 337.5<br/>gini = 0.32<br/>samples = 10<br/>value = [8, 2]<br/>class = 0>, fillcolor=\"#eca06a\"] ;\n",
            "176 -> 178 ;\n",
            "179 [label=<gini = 0.0<br/>samples = 5<br/>value = [5, 0]<br/>class = 0>, fillcolor=\"#e58139\"] ;\n",
            "178 -> 179 ;\n",
            "180 [label=<Age &le; 24.5<br/>gini = 0.48<br/>samples = 5<br/>value = [3, 2]<br/>class = 0>, fillcolor=\"#f6d5bd\"] ;\n",
            "178 -> 180 ;\n",
            "181 [label=<gini = 0.0<br/>samples = 2<br/>value = [2, 0]<br/>class = 0>, fillcolor=\"#e58139\"] ;\n",
            "180 -> 181 ;\n",
            "182 [label=<PassengerId &le; 411.0<br/>gini = 0.444<br/>samples = 3<br/>value = [1, 2]<br/>class = 1>, fillcolor=\"#9ccef2\"] ;\n",
            "180 -> 182 ;\n",
            "183 [label=<gini = 0.0<br/>samples = 2<br/>value = [0, 2]<br/>class = 1>, fillcolor=\"#399de5\"] ;\n",
            "182 -> 183 ;\n",
            "184 [label=<gini = 0.0<br/>samples = 1<br/>value = [1, 0]<br/>class = 0>, fillcolor=\"#e58139\"] ;\n",
            "182 -> 184 ;\n",
            "185 [label=<PassengerId &le; 385.5<br/>gini = 0.172<br/>samples = 21<br/>value = [19, 2]<br/>class = 0>, fillcolor=\"#e88e4e\"] ;\n",
            "175 -> 185 ;\n",
            "186 [label=<gini = 0.0<br/>samples = 16<br/>value = [16, 0]<br/>class = 0>, fillcolor=\"#e58139\"] ;\n",
            "185 -> 186 ;\n",
            "187 [label=<Age &le; 49.5<br/>gini = 0.48<br/>samples = 5<br/>value = [3, 2]<br/>class = 0>, fillcolor=\"#f6d5bd\"] ;\n",
            "185 -> 187 ;\n",
            "188 [label=<gini = 0.0<br/>samples = 3<br/>value = [3, 0]<br/>class = 0>, fillcolor=\"#e58139\"] ;\n",
            "187 -> 188 ;\n",
            "189 [label=<gini = 0.0<br/>samples = 2<br/>value = [0, 2]<br/>class = 1>, fillcolor=\"#399de5\"] ;\n",
            "187 -> 189 ;\n",
            "190 [label=<gini = 0.0<br/>samples = 1<br/>value = [0, 1]<br/>class = 1>, fillcolor=\"#399de5\"] ;\n",
            "172 -> 190 ;\n",
            "191 [label=<Age &le; 28.0<br/>gini = 0.1<br/>samples = 132<br/>value = [125, 7]<br/>class = 0>, fillcolor=\"#e68844\"] ;\n",
            "171 -> 191 ;\n",
            "192 [label=<Age &le; 26.5<br/>gini = 0.171<br/>samples = 74<br/>value = [67, 7]<br/>class = 0>, fillcolor=\"#e88e4e\"] ;\n",
            "191 -> 192 ;\n",
            "193 [label=<Age &le; 21.5<br/>gini = 0.131<br/>samples = 71<br/>value = [66, 5]<br/>class = 0>, fillcolor=\"#e78b48\"] ;\n",
            "192 -> 193 ;\n",
            "194 [label=<SibSp &le; 0.5<br/>gini = 0.05<br/>samples = 39<br/>value = [38, 1]<br/>class = 0>, fillcolor=\"#e6843e\"] ;\n",
            "193 -> 194 ;\n",
            "195 [label=<gini = 0.0<br/>samples = 34<br/>value = [34, 0]<br/>class = 0>, fillcolor=\"#e58139\"] ;\n",
            "194 -> 195 ;\n",
            "196 [label=<Age &le; 20.0<br/>gini = 0.32<br/>samples = 5<br/>value = [4, 1]<br/>class = 0>, fillcolor=\"#eca06a\"] ;\n",
            "194 -> 196 ;\n",
            "197 [label=<SibSp &le; 1.5<br/>gini = 0.5<br/>samples = 2<br/>value = [1, 1]<br/>class = 0>, fillcolor=\"#ffffff\"] ;\n",
            "196 -> 197 ;\n",
            "198 [label=<gini = 0.0<br/>samples = 1<br/>value = [0, 1]<br/>class = 1>, fillcolor=\"#399de5\"] ;\n",
            "197 -> 198 ;\n",
            "199 [label=<gini = 0.0<br/>samples = 1<br/>value = [1, 0]<br/>class = 0>, fillcolor=\"#e58139\"] ;\n",
            "197 -> 199 ;\n",
            "200 [label=<gini = 0.0<br/>samples = 3<br/>value = [3, 0]<br/>class = 0>, fillcolor=\"#e58139\"] ;\n",
            "196 -> 200 ;\n",
            "201 [label=<PassengerId &le; 573.0<br/>gini = 0.219<br/>samples = 32<br/>value = [28, 4]<br/>class = 0>, fillcolor=\"#e99355\"] ;\n",
            "193 -> 201 ;\n",
            "202 [label=<PassengerId &le; 540.0<br/>gini = 0.444<br/>samples = 9<br/>value = [6, 3]<br/>class = 0>, fillcolor=\"#f2c09c\"] ;\n",
            "201 -> 202 ;\n",
            "203 [label=<gini = 0.0<br/>samples = 6<br/>value = [6, 0]<br/>class = 0>, fillcolor=\"#e58139\"] ;\n",
            "202 -> 203 ;\n",
            "204 [label=<gini = 0.0<br/>samples = 3<br/>value = [0, 3]<br/>class = 1>, fillcolor=\"#399de5\"] ;\n",
            "202 -> 204 ;\n",
            "205 [label=<PassengerId &le; 838.5<br/>gini = 0.083<br/>samples = 23<br/>value = [22, 1]<br/>class = 0>, fillcolor=\"#e68742\"] ;\n",
            "201 -> 205 ;\n",
            "206 [label=<gini = 0.0<br/>samples = 21<br/>value = [21, 0]<br/>class = 0>, fillcolor=\"#e58139\"] ;\n",
            "205 -> 206 ;\n",
            "207 [label=<PassengerId &le; 842.0<br/>gini = 0.5<br/>samples = 2<br/>value = [1, 1]<br/>class = 0>, fillcolor=\"#ffffff\"] ;\n",
            "205 -> 207 ;\n",
            "208 [label=<gini = 0.0<br/>samples = 1<br/>value = [0, 1]<br/>class = 1>, fillcolor=\"#399de5\"] ;\n",
            "207 -> 208 ;\n",
            "209 [label=<gini = 0.0<br/>samples = 1<br/>value = [1, 0]<br/>class = 0>, fillcolor=\"#e58139\"] ;\n",
            "207 -> 209 ;\n",
            "210 [label=<PassengerId &le; 662.5<br/>gini = 0.444<br/>samples = 3<br/>value = [1, 2]<br/>class = 1>, fillcolor=\"#9ccef2\"] ;\n",
            "192 -> 210 ;\n",
            "211 [label=<gini = 0.0<br/>samples = 1<br/>value = [1, 0]<br/>class = 0>, fillcolor=\"#e58139\"] ;\n",
            "210 -> 211 ;\n",
            "212 [label=<gini = 0.0<br/>samples = 2<br/>value = [0, 2]<br/>class = 1>, fillcolor=\"#399de5\"] ;\n",
            "210 -> 212 ;\n",
            "213 [label=<gini = 0.0<br/>samples = 58<br/>value = [58, 0]<br/>class = 0>, fillcolor=\"#e58139\"] ;\n",
            "191 -> 213 ;\n",
            "214 [label=<Pclass &le; 2.5<br/>gini = 0.44<br/>samples = 46<br/>value = [31, 15]<br/>class = 0>, fillcolor=\"#f2be99\"] ;\n",
            "136 -> 214 ;\n",
            "215 [label=<Parch &le; 1.5<br/>gini = 0.42<br/>samples = 10<br/>value = [3, 7]<br/>class = 1>, fillcolor=\"#8ec7f0\"] ;\n",
            "214 -> 215 ;\n",
            "216 [label=<PassengerId &le; 165.0<br/>gini = 0.245<br/>samples = 7<br/>value = [1, 6]<br/>class = 1>, fillcolor=\"#5aade9\"] ;\n",
            "215 -> 216 ;\n",
            "217 [label=<gini = 0.0<br/>samples = 1<br/>value = [1, 0]<br/>class = 0>, fillcolor=\"#e58139\"] ;\n",
            "216 -> 217 ;\n",
            "218 [label=<gini = 0.0<br/>samples = 6<br/>value = [0, 6]<br/>class = 1>, fillcolor=\"#399de5\"] ;\n",
            "216 -> 218 ;\n",
            "219 [label=<Age &le; 29.0<br/>gini = 0.444<br/>samples = 3<br/>value = [2, 1]<br/>class = 0>, fillcolor=\"#f2c09c\"] ;\n",
            "215 -> 219 ;\n",
            "220 [label=<gini = 0.0<br/>samples = 2<br/>value = [2, 0]<br/>class = 0>, fillcolor=\"#e58139\"] ;\n",
            "219 -> 220 ;\n",
            "221 [label=<gini = 0.0<br/>samples = 1<br/>value = [0, 1]<br/>class = 1>, fillcolor=\"#399de5\"] ;\n",
            "219 -> 221 ;\n",
            "222 [label=<PassengerId &le; 858.5<br/>gini = 0.346<br/>samples = 36<br/>value = [28, 8]<br/>class = 0>, fillcolor=\"#eca572\"] ;\n",
            "214 -> 222 ;\n",
            "223 [label=<SibSp &le; 2.0<br/>gini = 0.32<br/>samples = 35<br/>value = [28, 7]<br/>class = 0>, fillcolor=\"#eca06a\"] ;\n",
            "222 -> 223 ;\n",
            "224 [label=<PassengerId &le; 663.5<br/>gini = 0.42<br/>samples = 20<br/>value = [14, 6]<br/>class = 0>, fillcolor=\"#f0b78e\"] ;\n",
            "223 -> 224 ;\n",
            "225 [label=<Age &le; 26.5<br/>gini = 0.32<br/>samples = 15<br/>value = [12, 3]<br/>class = 0>, fillcolor=\"#eca06a\"] ;\n",
            "224 -> 225 ;\n",
            "226 [label=<Age &le; 22.0<br/>gini = 0.42<br/>samples = 10<br/>value = [7, 3]<br/>class = 0>, fillcolor=\"#f0b78e\"] ;\n",
            "225 -> 226 ;\n",
            "227 [label=<PassengerId &le; 425.5<br/>gini = 0.219<br/>samples = 8<br/>value = [7, 1]<br/>class = 0>, fillcolor=\"#e99355\"] ;\n",
            "226 -> 227 ;\n",
            "228 [label=<gini = 0.0<br/>samples = 5<br/>value = [5, 0]<br/>class = 0>, fillcolor=\"#e58139\"] ;\n",
            "227 -> 228 ;\n",
            "229 [label=<PassengerId &le; 511.5<br/>gini = 0.444<br/>samples = 3<br/>value = [2, 1]<br/>class = 0>, fillcolor=\"#f2c09c\"] ;\n",
            "227 -> 229 ;\n",
            "230 [label=<gini = 0.0<br/>samples = 1<br/>value = [0, 1]<br/>class = 1>, fillcolor=\"#399de5\"] ;\n",
            "229 -> 230 ;\n",
            "231 [label=<gini = 0.0<br/>samples = 2<br/>value = [2, 0]<br/>class = 0>, fillcolor=\"#e58139\"] ;\n",
            "229 -> 231 ;\n",
            "232 [label=<gini = 0.0<br/>samples = 2<br/>value = [0, 2]<br/>class = 1>, fillcolor=\"#399de5\"] ;\n",
            "226 -> 232 ;\n",
            "233 [label=<gini = 0.0<br/>samples = 5<br/>value = [5, 0]<br/>class = 0>, fillcolor=\"#e58139\"] ;\n",
            "225 -> 233 ;\n",
            "234 [label=<SibSp &le; 0.5<br/>gini = 0.48<br/>samples = 5<br/>value = [2, 3]<br/>class = 1>, fillcolor=\"#bddef6\"] ;\n",
            "224 -> 234 ;\n",
            "235 [label=<gini = 0.0<br/>samples = 1<br/>value = [0, 1]<br/>class = 1>, fillcolor=\"#399de5\"] ;\n",
            "234 -> 235 ;\n",
            "236 [label=<PassengerId &le; 728.5<br/>gini = 0.5<br/>samples = 4<br/>value = [2, 2]<br/>class = 0>, fillcolor=\"#ffffff\"] ;\n",
            "234 -> 236 ;\n",
            "237 [label=<gini = 0.0<br/>samples = 1<br/>value = [0, 1]<br/>class = 1>, fillcolor=\"#399de5\"] ;\n",
            "236 -> 237 ;\n",
            "238 [label=<PassengerId &le; 786.5<br/>gini = 0.444<br/>samples = 3<br/>value = [2, 1]<br/>class = 0>, fillcolor=\"#f2c09c\"] ;\n",
            "236 -> 238 ;\n",
            "239 [label=<gini = 0.0<br/>samples = 2<br/>value = [2, 0]<br/>class = 0>, fillcolor=\"#e58139\"] ;\n",
            "238 -> 239 ;\n",
            "240 [label=<gini = 0.0<br/>samples = 1<br/>value = [0, 1]<br/>class = 1>, fillcolor=\"#399de5\"] ;\n",
            "238 -> 240 ;\n",
            "241 [label=<Age &le; 21.5<br/>gini = 0.124<br/>samples = 15<br/>value = [14, 1]<br/>class = 0>, fillcolor=\"#e78a47\"] ;\n",
            "223 -> 241 ;\n",
            "242 [label=<Age &le; 20.5<br/>gini = 0.32<br/>samples = 5<br/>value = [4, 1]<br/>class = 0>, fillcolor=\"#eca06a\"] ;\n",
            "241 -> 242 ;\n",
            "243 [label=<gini = 0.0<br/>samples = 4<br/>value = [4, 0]<br/>class = 0>, fillcolor=\"#e58139\"] ;\n",
            "242 -> 243 ;\n",
            "244 [label=<gini = 0.0<br/>samples = 1<br/>value = [0, 1]<br/>class = 1>, fillcolor=\"#399de5\"] ;\n",
            "242 -> 244 ;\n",
            "245 [label=<gini = 0.0<br/>samples = 10<br/>value = [10, 0]<br/>class = 0>, fillcolor=\"#e58139\"] ;\n",
            "241 -> 245 ;\n",
            "246 [label=<gini = 0.0<br/>samples = 1<br/>value = [0, 1]<br/>class = 1>, fillcolor=\"#399de5\"] ;\n",
            "222 -> 246 ;\n",
            "}\n"
          ]
        }
      ]
    },
    {
      "cell_type": "code",
      "metadata": {
        "colab": {
          "base_uri": "https://localhost:8080/",
          "height": 485
        },
        "id": "NAa9wFuwDsZC",
        "outputId": "917cad0f-ae14-40ff-c595-29c2d2ed0d0e"
      },
      "source": [
        "graph = pydotplus.graph_from_dot_data(dot_data.getvalue())\n",
        "graph.write_png('titanic.png')\n",
        "Image(graph.create_png())"
      ],
      "execution_count": 8,
      "outputs": [
        {
          "output_type": "execute_result",
          "data": {
            "image/png": 